svm_type c_svc
kernel_type rbf
gamma 0.0909091
nr_class 2
total_sv 9
rho 0.177205
label 0 1
nr_sv 5 4
SV
0.9836935652117141 1:0 2:0 3:0 4:0 5:0 6:0 7:0 8:0 9:0 10:0 11:7 
0.05234956040446075 1:0 2:0 3:0 4:0 5:0 6:0 7:0 8:0 9:0 10:0 11:0 
0.9335299074350705 1:0 2:0 3:0 4:0 5:0 6:0 7:0 8:0 9:0 10:0 11:0 
0.2639260490439166 1:0 2:0 3:0 4:0 5:0 6:0 7:0 8:0 9:0 10:0 11:3 
0.2719926565191246 1:0 2:0 3:0 4:0 5:0 6:0 7:0 8:0 9:0 10:0 11:4 
-0.8228079171151457 1:0 2:0 3:0 4:0 5:0 6:0 7:0 8:0 9:0 10:0 11:225 
-0.4304804149228239 1:0 2:0 3:0 4:0 5:0 6:0 7:0 8:0 9:0 10:0 11:182 
-0.4294838786427523 1:0 2:0 3:0 4:0 5:0 6:0 7:0 8:0 9:0 10:0 11:181 
-0.8227195279335647 1:0 2:0 3:0 4:0 5:0 6:0 7:0 8:0 9:0 10:0 11:142 
